digraph Tree {
node [shape=box, style="filled, rounded", color="black", fontname="helvetica"] ;
edge [fontname="helvetica"] ;
0 [label="NumProcedures <= 0.0\nentropy = 0.448\nsamples = 2704\nvalue = [2451, 253]\nclass = NonFraud", fillcolor="#e88e4d"] ;
1 [label="ChronicCond_ObstrPulmonary <= 192.5\nentropy = 0.104\nsamples = 1693\nvalue = [1670, 23]\nclass = NonFraud", fillcolor="#e5833c"] ;
0 -> 1 [labeldistance=2.5, labelangle=45, headlabel="True"] ;
2 [label="NumPhysiciansSeen <= 1.093\nentropy = 0.048\nsamples = 1669\nvalue = [1660, 9]\nclass = NonFraud", fillcolor="#e5823a"] ;
1 -> 2 ;
3 [label="IPAnnualReimbursementAmt <= 0.747\nentropy = 0.013\nsamples = 860\nvalue = [859, 1]\nclass = NonFraud", fillcolor="#e58139"] ;
2 -> 3 ;
4 [label="entropy = 0.0\nsamples = 752\nvalue = [752, 0]\nclass = NonFraud", fillcolor="#e58139"] ;
3 -> 4 ;
5 [label="entropy = 0.076\nsamples = 108\nvalue = [107, 1]\nclass = NonFraud", fillcolor="#e5823b"] ;
3 -> 5 ;
6 [label="NumDiagnosisClaims <= 8.5\nentropy = 0.08\nsamples = 809\nvalue = [801, 8]\nclass = NonFraud", fillcolor="#e5823b"] ;
2 -> 6 ;
7 [label="entropy = 0.072\nsamples = 808\nvalue = [801, 7]\nclass = NonFraud", fillcolor="#e5823b"] ;
6 -> 7 ;
8 [label="entropy = 0.0\nsamples = 1\nvalue = [0, 1]\nclass = Fraud", fillcolor="#399de5"] ;
6 -> 8 ;
9 [label="ChronicCond_Depression <= 486.0\nentropy = 0.98\nsamples = 24\nvalue = [10, 14]\nclass = Fraud", fillcolor="#c6e3f8"] ;
1 -> 9 ;
10 [label="ChronicCond_Cancer <= 83.5\nentropy = 0.954\nsamples = 16\nvalue = [10, 6]\nclass = NonFraud", fillcolor="#f5cdb0"] ;
9 -> 10 ;
11 [label="entropy = 0.0\nsamples = 3\nvalue = [0, 3]\nclass = Fraud", fillcolor="#399de5"] ;
10 -> 11 ;
12 [label="entropy = 0.779\nsamples = 13\nvalue = [10, 3]\nclass = NonFraud", fillcolor="#eda774"] ;
10 -> 12 ;
13 [label="entropy = 0.0\nsamples = 8\nvalue = [0, 8]\nclass = Fraud", fillcolor="#399de5"] ;
9 -> 13 ;
14 [label="ChronicCond_KidneyDisease <= 29.5\nentropy = 0.774\nsamples = 1011\nvalue = [781, 230]\nclass = NonFraud", fillcolor="#eda673"] ;
0 -> 14 [labeldistance=2.5, labelangle=-45, headlabel="False"] ;
15 [label="InscClaimAmtReimbursed <= 0.869\nentropy = 0.445\nsamples = 594\nvalue = [539, 55]\nclass = NonFraud", fillcolor="#e88e4d"] ;
14 -> 15 ;
16 [label="entropy = 0.0\nsamples = 135\nvalue = [135, 0]\nclass = NonFraud", fillcolor="#e58139"] ;
15 -> 16 ;
17 [label="ChronicCond_Diabetes <= 4.5\nentropy = 0.529\nsamples = 459\nvalue = [404, 55]\nclass = NonFraud", fillcolor="#e99254"] ;
15 -> 17 ;
18 [label="entropy = 0.0\nsamples = 102\nvalue = [102, 0]\nclass = NonFraud", fillcolor="#e58139"] ;
17 -> 18 ;
19 [label="entropy = 0.62\nsamples = 357\nvalue = [302, 55]\nclass = NonFraud", fillcolor="#ea985d"] ;
17 -> 19 ;
20 [label="NumDiagnosisClaims <= 3.469\nentropy = 0.981\nsamples = 417\nvalue = [242, 175]\nclass = NonFraud", fillcolor="#f8dcc8"] ;
14 -> 20 ;
21 [label="ChronicCond_Cancer <= 70.5\nentropy = 0.762\nsamples = 208\nvalue = [162, 46]\nclass = NonFraud", fillcolor="#eca571"] ;
20 -> 21 ;
22 [label="entropy = 0.455\nsamples = 157\nvalue = [142, 15]\nclass = NonFraud", fillcolor="#e88e4e"] ;
21 -> 22 ;
23 [label="entropy = 0.966\nsamples = 51\nvalue = [20, 31]\nclass = Fraud", fillcolor="#b9dcf6"] ;
21 -> 23 ;
24 [label="ChronicCond_ObstrPulmonary <= 96.5\nentropy = 0.96\nsamples = 209\nvalue = [80, 129]\nclass = Fraud", fillcolor="#b4daf5"] ;
20 -> 24 ;
25 [label="entropy = 0.997\nsamples = 167\nvalue = [78, 89]\nclass = Fraud", fillcolor="#e7f3fc"] ;
24 -> 25 ;
26 [label="entropy = 0.276\nsamples = 42\nvalue = [2, 40]\nclass = Fraud", fillcolor="#43a2e6"] ;
24 -> 26 ;
}