digraph Tree {
node [shape=box, style="filled, rounded", color="black", fontname="helvetica"] ;
edge [fontname="helvetica"] ;
0 [label="ChronicCond_ObstrPulmonary <= 88.5\ngini = 0.17\nsamples = 2704\nvalue = [2451, 253]\nclass = NonFraud", fillcolor="#e88e4d"] ;
1 [label="InscClaimAmtReimbursed <= 0.87\ngini = 0.12\nsamples = 2502\nvalue = [2342, 160]\nclass = NonFraud", fillcolor="#e78a47"] ;
0 -> 1 [labeldistance=2.5, labelangle=45, headlabel="True"] ;
2 [label="ChronicCond_KidneyDisease <= 151.5\ngini = 0.022\nsamples = 1849\nvalue = [1828, 21]\nclass = NonFraud", fillcolor="#e5823b"] ;
1 -> 2 ;
3 [label="ChronicCond_Osteoporasis <= 50.5\ngini = 0.021\nsamples = 1848\nvalue = [1828, 20]\nclass = NonFraud", fillcolor="#e5823b"] ;
2 -> 3 ;
4 [label="gini = 0.01\nsamples = 1709\nvalue = [1700, 9]\nclass = NonFraud", fillcolor="#e5823a"] ;
3 -> 4 ;
5 [label="gini = 0.146\nsamples = 139\nvalue = [128, 11]\nclass = NonFraud", fillcolor="#e78c4a"] ;
3 -> 5 ;
6 [label="gini = 0.0\nsamples = 1\nvalue = [0, 1]\nclass = Fraud", fillcolor="#399de5"] ;
2 -> 6 ;
7 [label="ChronicCond_ObstrPulmonary <= 20.5\ngini = 0.335\nsamples = 653\nvalue = [514, 139]\nclass = NonFraud", fillcolor="#eca36f"] ;
1 -> 7 ;
8 [label="ChronicCond_IschemicHeart <= 6.5\ngini = 0.187\nsamples = 479\nvalue = [429, 50]\nclass = NonFraud", fillcolor="#e89050"] ;
7 -> 8 ;
9 [label="gini = 0.024\nsamples = 165\nvalue = [163, 2]\nclass = NonFraud", fillcolor="#e5833b"] ;
8 -> 9 ;
10 [label="gini = 0.259\nsamples = 314\nvalue = [266, 48]\nclass = NonFraud", fillcolor="#ea985d"] ;
8 -> 10 ;
11 [label="InscClaimAmtReimbursed <= 2.262\ngini = 0.5\nsamples = 174\nvalue = [85, 89]\nclass = Fraud", fillcolor="#f6fbfe"] ;
7 -> 11 ;
12 [label="gini = 0.452\nsamples = 87\nvalue = [57, 30]\nclass = NonFraud", fillcolor="#f3c3a1"] ;
11 -> 12 ;
13 [label="gini = 0.437\nsamples = 87\nvalue = [28, 59]\nclass = Fraud", fillcolor="#97ccf1"] ;
11 -> 13 ;
14 [label="NumProcedures <= 0.038\ngini = 0.497\nsamples = 202\nvalue = [109, 93]\nclass = NonFraud", fillcolor="#fbede2"] ;
0 -> 14 [labeldistance=2.5, labelangle=-45, headlabel="False"] ;
15 [label="ChronicCond_IschemicHeart <= 954.0\ngini = 0.384\nsamples = 131\nvalue = [97, 34]\nclass = NonFraud", fillcolor="#eead7e"] ;
14 -> 15 ;
16 [label="ChronicCond_ObstrPulmonary <= 192.5\ngini = 0.243\nsamples = 113\nvalue = [97, 16]\nclass = NonFraud", fillcolor="#e9965a"] ;
15 -> 16 ;
17 [label="gini = 0.117\nsamples = 80\nvalue = [75, 5]\nclass = NonFraud", fillcolor="#e78946"] ;
16 -> 17 ;
18 [label="gini = 0.444\nsamples = 33\nvalue = [22, 11]\nclass = NonFraud", fillcolor="#f2c09c"] ;
16 -> 18 ;
19 [label="gini = 0.0\nsamples = 18\nvalue = [0, 18]\nclass = Fraud", fillcolor="#399de5"] ;
15 -> 19 ;
20 [label="ChronicCond_KidneyDisease <= 198.5\ngini = 0.281\nsamples = 71\nvalue = [12, 59]\nclass = Fraud", fillcolor="#61b1ea"] ;
14 -> 20 ;
21 [label="NumDiagnosisClaims <= 3.493\ngini = 0.414\nsamples = 41\nvalue = [12, 29]\nclass = Fraud", fillcolor="#8bc6f0"] ;
20 -> 21 ;
22 [label="gini = 0.219\nsamples = 8\nvalue = [7, 1]\nclass = NonFraud", fillcolor="#e99355"] ;
21 -> 22 ;
23 [label="gini = 0.257\nsamples = 33\nvalue = [5, 28]\nclass = Fraud", fillcolor="#5caeea"] ;
21 -> 23 ;
24 [label="gini = 0.0\nsamples = 30\nvalue = [0, 30]\nclass = Fraud", fillcolor="#399de5"] ;
20 -> 24 ;
}